{
  "activationNames": [
    "relu",
    "identity"
  ],
  "outputName": "softmax",
  "layers": [
    {
      "weights": [
        [
          0.009074223227798939,
          0.007886898703873158,
          0.009660719893872738,
          0.00029905582778155804,
          0.007757079787552357,
          0.007409745827317238,
          0.0006649105926044285,
          0.00830936525017023,
          0.009019956924021244,
          0.000899982638657093,
          0.0021225784439593554,
          0.0039765313267707825,
          0.007284060586243868,
          0.0018665884854272008,
          0.0013277014950290322,
          0.004185889381915331,
          0.0033489037305116653,
          0.0023272705730050802,
          0.009251078590750694,
          0.0029126699082553387,
          0.008128431625664234,
          0.0015034362440928817,
          0.002497702604159713,
          0.00024536027922295034,
          0.0014634729595854878,
          0.008946009911596775,
          0.00009005040919873863,
          0.008769875392317772,
          0.008494107984006405,
          0.009754638187587261,
          0.006475746165961027,
          0.0062461611814796925,
          0.000008445056664641015,
          0.00006476952694356441,
          0.007570814806967974,
          0.004527044016867876,
          0.004581110086292028,
          0.0054510291665792465,
          0.007000440265983343,
          0.00035823442158289254,
          0.0050943586975336075,
          -0.0010438034078106284,
          0.006575677543878555,
          -0.000009175523700832855,
          0.0039008017629384995,
          0.004377533216029406,
          0.004136727191507816,
          0.008003615774214268,
          0.0005703353090211749,
          0.008515022695064545,
          0.0021732053719460964,
          0.00019819848239421844,
          0.008258931338787079,
          0.0083727752789855,
          0.0009666408295743167,
          0.008142695762217045,
          0.008807283826172352,
          0.007994218729436398,
          0.008966519497334957,
          0.0052408440969884396,
          0.009762783534824848,
          0.005692839622497559,
          0.007949301972985268,
          0.001391987781971693,
          0.004773290362209082,
          -0.0015045559266582131,
          0.00107312120962888,
          0.00045950792264193296,
          0.0008116169483400881,
          0.0013168267905712128,
          -0.004336511250585318,
          0.0022155519109219313,
          -0.004278978332877159,
          -0.0004556497442536056,
          0.004032425116747618,
          0.004423659294843674,
          0.0069526140578091145,
          0.004004981834441423,
          0.0007607446750625968,
          0.0029064966365695,
          0.008642837405204773,
          0.0018378349486738443,
          0.003988638520240784,
          0.004959442652761936,
          0.0025848953519016504,
          0.008870210498571396,
          0.004188346676528454,
          0.004163465462625027,
          0.009586717933416367,
          0.008465094491839409,
          0.004784116521477699,
          0.0029136287048459053,
          0.0031990399584174156,
          -0.003260196652263403,
          -0.0032727420330047607,
          -0.002277364255860448,
          -0.01501966267824173,
          -0.014964566566050053,
          -0.015287386253476143,
          -0.020267214626073837,
          -0.012564470060169697,
          0.013005703687667847,
          0.011780387721955776,
          0.004032916389405727,
          -0.0038671253714710474,
          -0.0007294249953702092,
          -0.00343810161575675,
          -0.0016190758906304836,
          0.0066902367398142815,
          0.002712373388931155,
          0.0037042470648884773,
          0.006772930268198252,
          0.007675947155803442,
          0.004647842142730951,
          0.008844914846122265,
          0.009787168353796005,
          0.007201868575066328,
          0.00890438724309206,
          0.001002920907922089,
          0.00827975943684578,
          0.003952241037040949,
          -0.011204279959201813,
          -0.00423456309363246,
          0.013986809179186821,
          -0.010868563316762447,
          -0.03143266588449478,
          -0.008091402240097523,
          0.00030898753902874887,
          0.0011645866325125098,
          0.02991023287177086,
          0.037983544170856476,
          0.01753450557589531,
          -0.02174871228635311,
          -0.008576465770602226,
          0.006228754762560129,
          -0.0009720628149807453,
          0.007240607403218746,
          0.009070037864148617,
          0.008243471384048462,
          0.006599812302738428,
          0.009491505101323128,
          0.00016067191609181464,
          0.006349574308842421,
          0.004235829226672649,
          0.006714676972478628,
          0.004938200581818819,
          -0.01239108294248581,
          -0.02268028073012829,
          -0.02641940303146839,
          -0.025034159421920776,
          0.00920261163264513,
          0.03159283101558685,
          0.027103055268526077,
          -0.025901013985276222,
          -0.08615615218877792,
          -0.08622109889984131,
          -0.009987995959818363,
          0.013651862740516663,
          0.0030030396301299334,
          -0.017922839149832726,
          0.034003470093011856,
          0.011823000386357307,
          0.022680070251226425,
          0.028617335483431816,
          0.02723458781838417,
          0.008482744917273521,
          0.003220953047275543,
          0.0014984887093305588,
          0.00828363373875618,
          0.0011003892868757248,
          0.007237997371703386,
          0.013244607485830784,
          0.002978630131110549,
          0.00013168193981982768,
          -0.021212458610534668,
          -0.037196822464466095,
          -0.024443984031677246,
          0.009840774349868298,
          0.026358911767601967,
          0.0416889451444149,
          -0.010476639494299889,
          0.008494170382618904,
          0.01966061070561409,
          -0.00579711701720953,
          0.021665263921022415,
          0.08438253402709961,
          0.048357147723436356,
          0.02548428811132908,
          0.04350818693637848,
          0.044604796916246414,
          0.00665627047419548,
          0.0015783179551362991,
          0.03266138583421707,
          0.019535930827260017,
          0.008197684772312641,
          0.0011620554141700268,
          0.007449915632605553,
          0.009300336241722107,
          0.0052568805404007435,
          0.0045108795166015625,
          -0.002740030875429511,
          -0.012208356522023678,
          -0.020547397434711456,
          -0.025233183056116104,
          -0.008427395485341549,
          0.00786751601845026,
          -0.0004404572828207165,
          -0.0041447971016168594,
          -0.007183978799730539,
          0.02658066712319851,
          0.09017807245254517,
          0.07899504899978638,
          0.10369434952735901,
          0.1446208655834198,
          0.08267514407634735,
          0.07456430047750473,
          0.0513634979724884,
          -0.0004945995169691741,
          -0.008795876987278461,
          -0.01799236796796322,
          0.01364824641495943,
          0.026671292260289192,
          0.024572929367423058,
          0.005963653326034546,
          0.0020652611274272203,
          0.00043666496640071273,
          0.0047515928745269775,
          0.004092650953680277,
          -0.0033627599477767944,
          -0.002206198638305068,
          -0.009124578908085823,
          -0.00925836805254221,
          0.011775159277021885,
          0.021296294406056404,
          0.006421378348022699,
          0.041233163326978683,
          0.038502275943756104,
          0.027966395020484924,
          0.07716896384954453,
          0.11954120546579361,
          0.10994835942983627,
          0.03617698326706886,
          0.03694378584623337,
          0.006121637765318155,
          -0.001744522014632821,
          -0.020886778831481934,
          -0.017344221472740173,
          -0.014523920603096485,
          0.012416146695613861,
          0.025468017905950546,
          0.01766408234834671,
          0.009050563909113407,
          0.004265743773430586,
          0.008225400932133198,
          0.011556251905858517,
          0.015305617824196815,
          0.010229350067675114,
          -0.0008148209890350699,
          0.006252906750887632,
          -0.0023243094328790903,
          0.04416446015238762,
          0.052182648330926895,
          0.061272718012332916,
          0.11740926653146744,
          0.1370118409395218,
          0.08840712159872055,
          0.07050799578428268,
          0.08740833401679993,
          0.016197791323065758,
          -0.07372227311134338,
          -0.057933829724788666,
          -0.07201369851827621,
          -0.05565638095140457,
          -0.03070186637341976,
          -0.015789803117513657,
          -0.014545614831149578,
          0.011001361533999443,
          0.024983923882246017,
          0.006136041600257158,
          0.009649014100432396,
          0.0007155113271437585,
          0.001811382477171719,
          0.004385774489492178,
          0.022044382989406586,
          0.014014075510203838,
          0.0006762745906598866,
          0.0027109680231660604,
          -0.026144690811634064,
          0.037334900349378586,
          0.045520637184381485,
          0.09361347556114197,
          0.11269234120845795,
          0.053581200540065765,
          0.003002472221851349,
          -0.048654504120349884,
          -0.10861699283123016,
          -0.12120363861322403,
          -0.1295403391122818,
          -0.08924517780542374,
          -0.10897307097911835,
          -0.07358504831790924,
          -0.021670490503311157,
          -0.04578441381454468,
          -0.037299904972314835,
          0.003594466019421816,
          0.029979906976222992,
          0.012910798192024231,
          0.007626504637300968,
          0.00885038636624813,
          0.0034546267706900835,
          0.00809479970484972,
          0.009109700098633766,
          0.010454343631863594,
          -0.0011655896669253707,
          -0.02841700240969658,
          -0.052245475351810455,
          0.000128144325572066,
          0.0059737651608884335,
          -0.0033743081148713827,
          -0.022110851481556892,
          -0.10185082256793976,
          -0.08993522822856903,
          -0.08784321695566177,
          -0.08856948465108871,
          -0.09905828535556793,
          -0.056614283472299576,
          -0.04564731940627098,
          -0.07079903036355972,
          -0.019503163173794746,
          -0.027771256864070892,
          -0.049353014677762985,
          -0.03736438229680061,
          -0.011834148317575455,
          0.01697702519595623,
          0.007538542151451111,
          0.0057184514589607716,
          0.0016338732093572617,
          0.004636481404304504,
          0.002947885077446699,
          -0.016977258026599884,
          0.017620207741856575,
          -0.01004699058830738,
          -0.03347368165850639,
          -0.04724116995930672,
          -0.03482254967093468,
          -0.002081559970974922,
          0.010617507621645927,
          -0.05590910464525223,
          -0.12475953251123428,
          -0.05950751155614853,
          0.04386233538389206,
          0.011560364626348019,
          -0.06552579998970032,
          -0.04391350597143173,
          -0.021657554432749748,
          -0.017109474167227745,
          0.02725912630558014,
          -0.03557479754090309,
          -0.03352106362581253,
          -0.04957494139671326,
          -0.03178274631500244,
          0.0011858035577461123,
          0.0017160000279545784,
          0.008678842335939407,
          0.0037122631911188364,
          0.00042527413461357355,
          0.005735561717301607,
          -0.014339239336550236,
          0.00922134518623352,
          -0.02507077343761921,
          -0.042160384356975555,
          -0.01460063923150301,
          -0.04746338725090027,
          0.005675366148352623,
          0.040344417095184326,
          -0.009973926469683647,
          0.0021809979807585478,
          0.12765920162200928,
          0.152584046125412,
          0.023079922422766685,
          -0.025000914931297302,
          -0.04106564819812775,
          -0.021669799461960793,
          0.007024745922535658,
          -0.0017330737318843603,
          -0.040931351482868195,
          -0.07210902869701385,
          -0.054506320506334305,
          -0.030844835564494133,
          -0.005258561111986637,
          0.0019419409800320864,
          0.002227139426395297,
          0.008524011820554733,
          0.004468461498618126,
          0.0016799839213490486,
          -0.005841752514243126,
          -0.010358035564422607,
          -0.04205285757780075,
          -0.021249718964099884,
          0.0011320794001221657,
          0.0035101191606372595,
          0.07368480414152145,
          0.1251622587442398,
          0.08289505541324615,
          0.13418978452682495,
          0.17339114844799042,
          0.1527218073606491,
          0.05694461613893509,
          -0.005940161179751158,
          -0.012015086598694324,
          -0.0023258726578205824,
          -0.011285349726676941,
          -0.006982842460274696,
          -0.026264339685440063,
          -0.03179503604769707,
          -0.03965689241886139,
          -0.02508167363703251,
          -0.010414478369057178,
          0.00023557254462502897,
          0.004808167926967144,
          0.002302561653777957,
          0.004209103994071484,
          0.0011087375460192561,
          -0.011056357994675636,
          -0.012245270423591137,
          -0.038125179708004,
          -0.047037672251462936,
          -0.048061762005090714,
          -0.03335724025964737,
          0.06707604974508286,
          0.21832145750522614,
          0.2198316603899002,
          0.2154719978570938,
          0.14064666628837585,
          0.05089345574378967,
          0.017763355746865273,
          -0.029720937833189964,
          -0.04962942749261856,
          0.0018738370854407549,
          0.026507150381803513,
          0.031239056959748268,
          -0.008394877426326275,
          -0.04380636289715767,
          -0.02455214411020279,
          -0.028110332787036896,
          -0.011845286935567856,
          0.0018073347164317966,
          0.0004961937083862722,
          0.000027615329599939287,
          0.0022538425400853157,
          0.006858177948743105,
          -0.005177181679755449,
          -0.016433443874120712,
          -0.05506110191345215,
          -0.13088251650333405,
          -0.16085438430309296,
          -0.16260100901126862,
          -0.042742352932691574,
          0.0960455983877182,
          0.15054479241371155,
          0.16415685415267944,
          0.03889396786689758,
          -0.03225284814834595,
          -0.013880454935133457,
          -0.013926212675869465,
          0.011089629493653774,
          0.06546680629253387,
          0.07072020322084427,
          0.03514654189348221,
          -0.020013099536299706,
          -0.03898109495639801,
          -0.029861822724342346,
          -0.023298464715480804,
          -0.01947883702814579,
          -0.004999498836696148,
          0.0016745380125939846,
          0.007269407156854868,
          0.006821388844400644,
          0.007897119969129562,
          0.010227860882878304,
          -0.010315761901438236,
          -0.07216263562440872,
          -0.13873140513896942,
          -0.22725628316402435,
          -0.2911061644554138,
          -0.28706812858581543,
          -0.1830034703016281,
          -0.11129029840230942,
          -0.1008368730545044,
          -0.09959062933921814,
          -0.1255788505077362,
          0.010442748665809631,
          -0.021148592233657837,
          0.04123823344707489,
          0.1038379818201065,
          0.10552866756916046,
          0.04460454732179642,
          -0.006940558087080717,
          -0.03541764244437218,
          -0.040475450456142426,
          -0.04202798753976822,
          -0.011176043190062046,
          0.004023899789899588,
          0.0099934758618474,
          0.005139625631272793,
          0.0008250413811765611,
          0.009197313338518143,
          0.01924421824514866,
          0.01845359057188034,
          -0.053681619465351105,
          -0.11692237854003906,
          -0.21651366353034973,
          -0.3312784433364868,
          -0.4057934582233429,
          -0.39226484298706055,
          -0.3702792227268219,
          -0.3545455038547516,
          -0.287194162607193,
          -0.18971465528011322,
          -0.07659103721380234,
          -0.05303943529725075,
          0.04004921019077301,
          0.09073742479085922,
          0.11451101303100586,
          0.08678632229566574,
          0.009206213057041168,
          -0.028107421472668648,
          -0.03766955807805061,
          -0.02609848976135254,
          -0.00403473200276494,
          0.00443361746147275,
          0.003489156486466527,
          0.007879061624407768,
          0.00299228448420763,
          0.010004118084907532,
          0.02306319586932659,
          0.022671224549412727,
          -0.018611110746860504,
          -0.08929714560508728,
          -0.14873512089252472,
          -0.2261798232793808,
          -0.3239443898200989,
          -0.3705100417137146,
          -0.3721233904361725,
          -0.3490920662879944,
          -0.2540886700153351,
          -0.1367281973361969,
          -0.09551077336072922,
          -0.033840686082839966,
          0.03839566186070442,
          0.053400032222270966,
          0.07364419847726822,
          0.06751540303230286,
          -0.01970008760690689,
          -0.026573922485113144,
          -0.014313952997326851,
          -0.022542694583535194,
          -0.0010103055974468589,
          0.004875807091593742,
          0.008673863485455513,
          0.009979693219065666,
          0.0067318156361579895,
          0.004430217668414116,
          0.025591926649212837,
          0.043908193707466125,
          0.031971681863069534,
          -0.0560363344848156,
          -0.07983613759279251,
          -0.09030752629041672,
          -0.13863933086395264,
          -0.1946725994348526,
          -0.19032931327819824,
          -0.18577876687049866,
          -0.08142905682325363,
          -0.054609231650829315,
          -0.0485009141266346,
          0.0021684870589524508,
          0.018865739926695824,
          0.018056832253932953,
          -0.01106705330312252,
          -0.008532624691724777,
          -0.030083511024713516,
          -0.015647605061531067,
          0.005129347089678049,
          -0.00905013270676136,
          -0.00177011638879776,
          0.006025522481650114,
          0.004150767810642719,
          0.00844560656696558,
          0.004077808000147343,
          0.008750381879508495,
          0.01270535308867693,
          0.052613548934459686,
          0.02676972560584545,
          -0.016064319759607315,
          -0.0075843180529773235,
          0.01007277425378561,
          0.01266411691904068,
          0.038072001188993454,
          0.0888836458325386,
          0.04872436448931694,
          0.0642554834485054,
          0.0356544591486454,
          0.052706826478242874,
          0.014120825566351414,
          -0.0197343360632658,
          -0.06910884380340576,
          -0.0899544358253479,
          -0.063571996986866,
          -0.018965378403663635,
          -0.006113623268902302,
          0.014455148950219154,
          0.014307233504951,
          -0.0020460346713662148,
          0.00648465333506465,
          0.0034032603725790977,
          0.004004841670393944,
          0.0025510049890726805,
          0.006899841129779816,
          0.016436303034424782,
          0.04762334004044533,
          0.06429541856050491,
          0.008036534301936626,
          0.008386408910155296,
          0.056491702795028687,
          0.05951044708490372,
          0.11543864011764526,
          0.1980060636997223,
          0.17053423821926117,
          0.12466748058795929,
          0.07690190523862839,
          0.020182861015200615,
          -0.004892620723694563,
          -0.06393726170063019,
          -0.15400591492652893,
          -0.11584243178367615,
          -0.02950616180896759,
          -0.011800521053373814,
          0.0013622603146359324,
          0.019839022308588028,
          0.012307610362768173,
          0.004195959307253361,
          0.0054029859602451324,
          0.008069179020822048,
          0.009279805235564709,
          0.004637624602764845,
          0.011579843237996101,
          0.01388871856033802,
          0.033023107796907425,
          0.07800211012363434,
          0.07660659402608871,
          0.03966503590345383,
          0.08777406066656113,
          0.12241605669260025,
          0.18639618158340454,
          0.1947394609451294,
          0.18890278041362762,
          0.13015805184841156,
          0.03683982416987419,
          -0.06577291339635849,
          -0.08723010122776031,
          -0.11245151609182358,
          -0.13800197839736938,
          -0.07940978556871414,
          -0.0338146798312664,
          -0.025485873222351074,
          0.00003665851545520127,
          0.027202429249882698,
          0.01701122522354126,
          0.008383131586015224,
          0.0015815815422683954,
          0.00933449063450098,
          0.00351438345387578,
          0.005939250346273184,
          0.007762066554278135,
          0.013483753427863121,
          0.024028295651078224,
          0.038916055113077164,
          0.07438449561595917,
          0.10923914611339569,
          0.10955947637557983,
          0.1320081353187561,
          0.1498861461877823,
          0.10555598884820938,
          0.06029924377799034,
          0.02853097952902317,
          -0.0017692730762064457,
          -0.05744359269738197,
          -0.0924442857503891,
          -0.06554106622934341,
          -0.08775456249713898,
          -0.0755506306886673,
          -0.008546456694602966,
          0.021701956167817116,
          0.029017262160778046,
          0.026620259508490562,
          0.01573704183101654,
          0.003986569587141275,
          0.008509287610650063,
          0.005889401771128178,
          0.008012525737285614,
          0.0005550853675231338,
          0.0007441337802447379,
          0.003596699330955744,
          0.010092194192111492,
          0.025106292217969894,
          0.0347970686852932,
          0.064957395195961,
          0.08857567608356476,
          0.11872681230306625,
          0.12437297403812408,
          0.1090848445892334,
          0.08176063746213913,
          0.05647914484143257,
          -0.010359776206314564,
          -0.01035921461880207,
          -0.0015070271911099553,
          0.0033747947309166193,
          0.010574903339147568,
          0.028652064502239227,
          0.04091888666152954,
          0.0375235378742218,
          0.030424879863858223,
          0.019749334082007408,
          0.018000692129135132,
          0.0062185549177229404,
          0.00758438790217042,
          0.005065271630883217,
          0.0018314605113118887,
          0.001071157050319016,
          0.003783257445320487,
          0.0026077134534716606,
          0.006702106911689043,
          0.014422227628529072,
          0.012704429216682911,
          0.02493453025817871,
          0.026072967797517776,
          0.026561930775642395,
          0.052169278264045715,
          0.05909666419029236,
          0.0724981501698494,
          0.06461549550294876,
          0.05903802812099457,
          0.0374518558382988,
          0.04363180696964264,
          0.02335999347269535,
          0.021227572113275528,
          0.02244476228952408,
          0.03291254863142967,
          0.0229350458830595,
          0.00974422786384821,
          0.0014821606455370784,
          0.0060051120817661285,
          0.005426728632301092,
          0.0032973256893455982,
          0.0016632926417514682,
          0.005336427595466375,
          0.004879647400230169,
          0.008639519102871418,
          0.0017252392135560513,
          0.0024917658884078264,
          0.002114052651450038,
          0.007235588971525431,
          0.009912724606692791,
          0.00906171090900898,
          0.0065971603617072105,
          0.0027571571990847588,
          0.006175525952130556,
          0.012124089524149895,
          0.0022155155893415213,
          0.00964535865932703,
          0.006793101783841848,
          0.0037184087559580803,
          0.009731928817927837,
          0.005017847288399935,
          0.003647840116173029,
          0.0009790011681616306,
          0.010130771435797215,
          0.009013098664581776,
          0.00463511049747467,
          0.005106024909764528,
          0.002938607707619667,
          0.0024948250502347946,
          0.004357299767434597
        ],
        [
          0.008410263806581497,
          0.007309579756110907,
          0.0011860375525429845,
          0.005239660851657391,
          0.009994661435484886,
          0.004922468680888414,
          0.008051883429288864,
          0.009510890580713749,
          0.0004389419627841562,
          0.008811861276626587,
          0.006409303285181522,
          0.0004307953058741987,
          0.005804507061839104,
          0.002432627137750387,
          0.009685918688774109,
          0.006149879191070795,
          0.009136049076914787,
          0.008117728866636753,
          0.002594379708170891,
          0.008636708371341228,
          0.0016986223636195064,
          0.004695680923759937,
          0.0009576872689649463,
          0.006423575803637505,
          0.005985144525766373,
          0.007682486902922392,
          0.0015948027139529586,
          0.002052117371931672,
          0.0037214066833257675,
          0.007128162309527397,
          0.0045259674079716206,
          0.002493592444807291,
          0.00871631596237421,
          0.005424525123089552,
          0.004228890407830477,
          0.0030680669005960226,
          0.0072386860847473145,
          0.008224652148783207,
          0.005009588319808245,
          0.0080504659563303,
          0.0017798726912587881,
          0.007873263210058212,
          0.0031127638649195433,
          0.007764502428472042,
          0.002483684802427888,
          0.00836692750453949,
          0.006918272934854031,
          0.0052172294817864895,
          -0.00020569543994497508,
          0.005530853755772114,
          0.0008202454773709178,
          0.00014770102279726416,
          0.001937197637744248,
          0.008907520212233067,
          0.00571108516305685,
          0.007981663569808006,
          0.00338464742526412,
          0.0034081062767654657,
          0.00597100704908371,
          0.003293606685474515,
          0.009343946352601051,
          0.000976992305368185,
          0.0021203127689659595,
          0.004708952270448208,
          0.005534545984119177,
          0.002634750446304679,
          0.0042101540602743626,
          0.006855159066617489,
          0.004694476258009672,
          0.0024175094440579414,
          0.004108849447220564,
          0.001065848395228386,
          -0.005094538908451796,
          0.0014850000152364373,
          -0.003918155562132597,
          0.002500306349247694,
          -0.0014297568704932928,
          0.004584720823913813,
          0.009037492796778679,
          0.0004842762718908489,
          0.00001571835127833765,
          0.004840010777115822,
          0.009375812485814095,
          0.0006981678307056427,
          0.005079691763967276,
          0.004177823197096586,
          0.006566293071955442,
          0.0020382392685860395,
          0.005317656788975,
          0.0054686106741428375,
          0.008550343103706837,
          0.004859799053519964,
          0.008418071083724499,
          0.00358404079452157,
          0.010722321458160877,
          0.009787077084183693,
          0.014739382080733776,
          0.011574898846447468,
          0.007698202971369028,
          -0.00015316673670895398,
          -0.00734312180429697,
          0.003719006199389696,
          0.008027278818190098,
          -0.0025310206692665815,
          0.002534769242629409,
          0.0008206104394048452,
          0.00695300055667758,
          0.007926050573587418,
          0.00021518934227060527,
          0.00900708045810461,
          0.007750004529953003,
          0.0028261833358556032,
          0.0030683446675539017,
          0.005916488356888294,
          0.009789661504328251,
          0.008417091332376003,
          0.005732126068323851,
          0.0108321662992239,
          0.017944488674402237,
          0.02655096724629402,
          0.0414234884083271,
          0.040575090795755386,
          0.04887695983052254,
          0.05853909254074097,
          0.060012105852365494,
          0.0679444670677185,
          0.05650406703352928,
          0.04481064900755882,
          0.03098682127892971,
          0.008089220151305199,
          0.003931761719286442,
          -0.005386002361774445,
          -0.01382716279476881,
          -0.008936606347560883,
          -0.01437329687178135,
          -0.0066155665554106236,
          0.007068134844303131,
          0.0003987142990808934,
          0.0034389232750982046,
          0.009378484450280666,
          0.006737133488059044,
          0.009166977368295193,
          0.009595406241714954,
          0.007349446415901184,
          0.01879536733031273,
          0.02723250724375248,
          0.030782708898186684,
          0.04596420004963875,
          0.04008117690682411,
          0.04217587038874626,
          0.05035482719540596,
          0.04241813346743584,
          0.0398787222802639,
          0.04570741578936577,
          0.046089038252830505,
          0.05330878868699074,
          0.05655738338828087,
          0.029376301914453506,
          0.01214828435331583,
          0.015484853647649288,
          -0.007568597327917814,
          -0.03451624885201454,
          -0.03439366817474365,
          -0.027192004024982452,
          -0.0000389368251489941,
          0.006945775356143713,
          0.0039636013098061085,
          0.0036683387588709593,
          0.009362145327031612,
          0.0036051247734576464,
          0.002193183172494173,
          0.005285322200506926,
          0.020845569670200348,
          0.03315545618534088,
          0.03836437314748764,
          0.035287950187921524,
          0.021198291331529617,
          0.018338557332754135,
          0.0024920080322772264,
          -0.004760288167744875,
          0.022514844313263893,
          0.02560615725815296,
          0.008370574563741684,
          -0.0018852605717256665,
          0.007755408063530922,
          0.016168897971510887,
          -0.0037727998569607735,
          -0.0027632247656583786,
          -0.012848972342908382,
          -0.02422386221587658,
          -0.03371867910027504,
          -0.026082182303071022,
          -0.007828888483345509,
          0.00496589345857501,
          0.009124900214374065,
          0.0037617525085806847,
          0.005151870660483837,
          0.006342736072838306,
          0.0065579768270254135,
          0.005124708637595177,
          0.028604937717318535,
          0.045209288597106934,
          0.04066396504640579,
          0.030400549992918968,
          0.010755380615592003,
          -0.0027642922941595316,
          -0.028759079053997993,
          -0.04008162021636963,
          -0.03463238850235939,
          -0.03279590606689453,
          -0.048080962151288986,
          -0.03633978217840195,
          -0.03136506676673889,
          -0.006001711823046207,
          -0.0029914607293903828,
          -0.0009255222394131124,
          -0.003990658558905125,
          -0.018070703372359276,
          -0.03435986116528511,
          -0.024625396355986595,
          -0.010199497453868389,
          0.0036696658935397863,
          0.006269598379731178,
          0.0049862368032336235,
          0.0056487154215574265,
          0.0037232304457575083,
          0.005029152613133192,
          0.0051041459664702415,
          0.03950471058487892,
          0.0408053956925869,
          0.035949885845184326,
          0.020996224135160446,
          -0.002039500279352069,
          0.0026439321227371693,
          -0.016240591183304787,
          -0.030357280746102333,
          -0.03515389561653137,
          -0.06496015191078186,
          -0.06905382126569748,
          -0.04276200383901596,
          -0.025325428694486618,
          -0.011445018462836742,
          0.016706010326743126,
          0.02947269380092621,
          0.0003645644464995712,
          -0.012837049551308155,
          -0.008117127232253551,
          -0.02048412710428238,
          -0.009419654496014118,
          0.0006318709347397089,
          0.007446737959980965,
          0.007499708328396082,
          0.007638873532414436,
          0.00008627636270830408,
          0.009793485514819622,
          0.0109349200502038,
          0.021314380690455437,
          0.024878408759832382,
          0.016099892556667328,
          -0.000914727512281388,
          -0.01531913410872221,
          -0.005453457124531269,
          -0.022611841559410095,
          -0.04389019310474396,
          -0.043146174401044846,
          -0.04349645599722862,
          -0.021286727860569954,
          0.004688221495598555,
          0.019601965323090553,
          0.022535935044288635,
          0.02474256232380867,
          0.02151155285537243,
          0.021163104102015495,
          -0.010421129874885082,
          -0.004318885505199432,
          -0.010690604336559772,
          -0.004832528997212648,
          0.0018765918212011456,
          0.010263506323099136,
          0.009065136313438416,
          0.008744439110159874,
          0.00810600258409977,
          0.010243481956422329,
          0.007007144391536713,
          0.004146391525864601,
          -0.008404960855841637,
          -0.013400792144238949,
          -0.02329203300178051,
          -0.026793044060468674,
          -0.016555435955524445,
          -0.039836250245571136,
          -0.04217502102255821,
          -0.04358360171318054,
          -0.012193484231829643,
          0.008549126796424389,
          0.015003213658928871,
          0.03657886013388634,
          0.05231960490345955,
          0.04591154307126999,
          0.006795081775635481,
          -0.0063058496452867985,
          -0.016682837158441544,
          -0.017299506813287735,
          -0.011049645021557808,
          -0.007346519269049168,
          0.0039041093550622463,
          0.0035966194700449705,
          0.009802673012018204,
          0.0016923643415793777,
          0.0019876528531312943,
          0.004038434009999037,
          0.005731032229959965,
          -0.0045363097451627254,
          -0.021771270781755447,
          -0.03598026931285858,
          -0.044933293014764786,
          -0.03577394038438797,
          -0.016712894663214684,
          -0.014044995419681072,
          -0.0021400696132332087,
          0.03520473465323448,
          0.055174097418785095,
          0.039560671895742416,
          0.039269570261240005,
          0.02954169176518917,
          0.03992074355483055,
          0.00321203819476068,
          -0.03651387616991997,
          -0.03041696734726429,
          -0.03986942768096924,
          -0.031964559108018875,
          -0.016381939873099327,
          0.0021462617442011833,
          0.0036949999630451202,
          0.00034546153619885445,
          0.007748610805720091,
          0.00818826723843813,
          0.003021028358489275,
          0.0009277086355723441,
          -0.006709060166031122,
          -0.02231590449810028,
          -0.03125583752989769,
          -0.03669678419828415,
          -0.03837107867002487,
          -0.04686736688017845,
          0.0006043589673936367,
          0.022850660607218742,
          0.04485413804650307,
          0.07697300612926483,
          0.09118048846721649,
          0.06847657263278961,
          0.06071631610393524,
          0.021921556442975998,
          0.008794953115284443,
          -0.026953157037496567,
          -0.05903232470154762,
          -0.06041090935468674,
          -0.046533893793821335,
          -0.036360062658786774,
          -0.01788673922419548,
          -0.005163329653441906,
          0.0064605227671563625,
          0.00276611908338964,
          0.0037023150362074375,
          0.0035918294452130795,
          0.0038032596930861473,
          0.0017985941376537085,
          -0.003942429553717375,
          -0.024694189429283142,
          -0.03222173452377319,
          -0.0374445840716362,
          -0.04039334878325462,
          -0.030115509405732155,
          -0.007064694073051214,
          0.011563333682715893,
          0.052889324724674225,
          0.08062764257192612,
          0.07849036157131195,
          0.03943438082933426,
          0.03276908025145531,
          0.04259638115763664,
          0.02401001937687397,
          -0.010528131388127804,
          -0.04470738023519516,
          -0.045596614480018616,
          -0.026484869420528412,
          -0.02776503749191761,
          -0.026455363258719444,
          0.0014212789246812463,
          0.00157993717584759,
          0.004487562458962202,
          0.006678979843854904,
          0.009454489685595036,
          0.0014489988097921014,
          0.000649628636892885,
          -0.005753134842962027,
          -0.009405449964106083,
          -0.022337814792990685,
          -0.03352002054452896,
          -0.03183850646018982,
          -0.026804789900779724,
          -0.0256811510771513,
          -0.008971955627202988,
          0.03338481858372688,
          0.03937650844454765,
          0.05534662306308746,
          0.048754800111055374,
          0.03411301597952843,
          0.04054059460759163,
          0.0454435795545578,
          0.005442684516310692,
          -0.01969490572810173,
          -0.011773290112614632,
          0.029421720653772354,
          -0.0015072262613102794,
          -0.017862439155578613,
          -0.006751823239028454,
          -0.0015942588215693831,
          0.0014464783016592264,
          0.003076234133914113,
          0.0032557514496147633,
          0.009779064916074276,
          0.0009794696234166622,
          0.0024647554382681847,
          0.006414798088371754,
          -0.01621975749731064,
          -0.018832216039299965,
          -0.01247819047421217,
          -0.01169165875762701,
          -0.01595613919198513,
          -0.02227788232266903,
          -0.02465764991939068,
          0.007874825969338417,
          0.038910213857889175,
          0.018955480307340622,
          0.017986394464969635,
          0.005791062954813242,
          0.023782987147569656,
          0.008774575777351856,
          -0.00579539081081748,
          0.017575649544596672,
          0.04015568643808365,
          0.026837142184376717,
          0.004935447126626968,
          0.0009436341351829469,
          0.009853823110461235,
          0.009604274295270443,
          -0.000012354224054433871,
          0.006484392564743757,
          0.0046966359950602055,
          0.011418387293815613,
          0.0023034990299493074,
          0.004488224163651466,
          -0.005944610573351383,
          -0.009803651832044125,
          -0.0022194841876626015,
          -0.0011073221685364842,
          -0.016490893438458443,
          -0.04567866772413254,
          -0.06208556517958641,
          -0.012700441293418407,
          -0.00850885920226574,
          -0.050358522683382034,
          -0.04000735282897949,
          -0.013316634111106396,
          0.01163447741419077,
          0.012391856871545315,
          0.014936884865164757,
          0.015544688329100609,
          0.024441717192530632,
          0.03519926220178604,
          0.020170245319604874,
          0.007980497553944588,
          -0.002430895110592246,
          0.007197954226285219,
          0.002923015272244811,
          0.007146729622036219,
          0.0010814701672643423,
          0.005299060605466366,
          0.022930162027478218,
          0.012345519848167896,
          -0.0021134496200829744,
          -0.008023813366889954,
          -0.0027676252648234367,
          -0.005224966909736395,
          -0.04332166165113449,
          -0.0886179506778717,
          -0.08900316059589386,
          -0.05239599198102951,
          -0.06607121229171753,
          -0.10344403237104416,
          -0.07106798142194748,
          0.004897722974419594,
          0.02944543957710266,
          0.010324118658900261,
          0.03309718146920204,
          0.028663240373134613,
          0.03498527780175209,
          0.044681984931230545,
          0.031776975840330124,
          0.000245463103055954,
          -0.006764915306121111,
          -0.0003007288614753634,
          0.0059922016225755215,
          0.009392396546900272,
          0.003775192890316248,
          0.012860947288572788,
          0.03830239176750183,
          0.018967404961586,
          0.023991581052541733,
          0.014545370824635029,
          -0.009303426370024681,
          -0.010833635926246643,
          -0.03498672693967819,
          -0.053990934044122696,
          -0.0632329061627388,
          -0.07106785476207733,
          -0.09284322708845139,
          -0.12409096956253052,
          -0.08087712526321411,
          0.0004357501748017967,
          0.011958673596382141,
          0.02381436713039875,
          0.050821393728256226,
          0.03884550556540489,
          0.04264978691935539,
          0.048924464732408524,
          0.02680358663201332,
          -0.0065416512079536915,
          -0.005447703413665295,
          -0.0001928290439536795,
          0.0003487988724373281,
          0.004393897484987974,
          0.0046669431030750275,
          0.007868779823184013,
          0.03254178911447525,
          0.029448479413986206,
          0.02562505565583706,
          0.01630876585841179,
          -0.0057019018568098545,
          -0.011781403794884682,
          -0.026600824669003487,
          -0.014950363896787167,
          -0.04594922438263893,
          -0.05852891132235527,
          -0.08665663003921509,
          -0.10939391702413559,
          -0.07722783088684082,
          -0.024005791172385216,
          0.015674371272325516,
          0.023417070508003235,
          0.040093790739774704,
          0.03634665533900261,
          0.04909873008728027,
          0.049518391489982605,
          0.023316603153944016,
          0.0009401261922903359,
          0.0021772324107587337,
          0.001801593927666545,
          0.004623240791261196,
          0.0030139933805912733,
          0.0077325450256466866,
          0.010888890363276005,
          0.024097643792629242,
          0.03685232624411583,
          0.02002849243581295,
          0.014460605569183826,
          0.0041030459105968475,
          -0.014498095959424973,
          -0.01059019099920988,
          -0.015573732554912567,
          -0.03078916110098362,
          -0.049034565687179565,
          -0.05662144720554352,
          -0.05356575921177864,
          -0.026863031089305878,
          -0.00007774445111863315,
          0.017629897221922874,
          0.020139824599027634,
          0.023020703345537186,
          0.059156037867069244,
          0.05154716968536377,
          0.0368085540831089,
          0.0036596027202904224,
          -0.009855206124484539,
          0.003492396092042327,
          0.0015393602661788464,
          0.0035602059215307236,
          0.0025678861420601606,
          0.0035843863151967525,
          0.008448295295238495,
          0.014274670742452145,
          0.02237502858042717,
          0.024004673585295677,
          0.008754903450608253,
          -0.0011849370785057545,
          -0.017983613535761833,
          -0.012771851383149624,
          -0.02161109633743763,
          -0.015524674206972122,
          -0.01079269964247942,
          -0.0038668420165777206,
          -0.006140377372503281,
          0.02266952022910118,
          0.030913319438695908,
          0.023834189400076866,
          0.005252649076282978,
          0.03290712833404541,
          0.0392875038087368,
          0.019984928891062737,
          0.009476928971707821,
          -0.009425775147974491,
          -0.008000930771231651,
          0.002234756713733077,
          0.0014427813002839684,
          0.009474392049014568,
          0.009852791205048561,
          0.00936849880963564,
          0.007634847890585661,
          0.00780552439391613,
          0.015971064567565918,
          0.011099970899522305,
          0.017563970759510994,
          -0.0003063597541768104,
          -0.030724458396434784,
          -0.02872736006975174,
          -0.021272379904985428,
          -0.006965209264308214,
          0.006367083173245192,
          0.029642939567565918,
          0.02726157382130623,
          0.05009394884109497,
          0.03464458882808685,
          0.006687515880912542,
          0.003294335911050439,
          0.023636594414711,
          0.01834496483206749,
          0.01617293618619442,
          0.006938984151929617,
          -0.0077911196276545525,
          -0.006497932597994804,
          0.003620424307882786,
          0.0013306933687999845,
          0.0047548022121191025,
          0.009421298280358315,
          0.0025130268186330795,
          0.007269035559147596,
          0.011392960324883461,
          0.007242725696414709,
          0.0030842844862490892,
          0.001828127889893949,
          0.007460662629455328,
          -0.01503493171185255,
          0.00345425633713603,
          -0.0017743693897500634,
          -0.0023189943749457598,
          -0.0028305042069405317,
          0.03574162349104881,
          0.03615960478782654,
          0.028001844882965088,
          0.003228049026802182,
          -0.00027252506697550416,
          0.012763658538460732,
          0.018529383465647697,
          0.010951142758131027,
          0.004360333550721407,
          0.00006320300599327311,
          0.00020540584228001535,
          0.0009649583953432739,
          0.008674035780131817,
          0.009494577534496784,
          0.009130343794822693,
          0.002882663393393159,
          0.004254326689988375,
          0.004255326464772224,
          0.01062231045216322,
          0.013784081675112247,
          0.011030520312488079,
          0.021512284874916077,
          0.026425562798976898,
          0.010181192308664322,
          0.006723405327647924,
          0.0027835078071802855,
          0.012376910075545311,
          0.007462437264621258,
          0.009785851463675499,
          -0.004082632251083851,
          -0.010052711702883244,
          -0.004435542970895767,
          -0.01684798300266266,
          -0.014681641012430191,
          -0.007685317192226648,
          -0.0010349387302994728,
          0.0041608018800616264,
          -0.00007697359978919849,
          -0.0019121103687211871,
          0.008489204570651054,
          0.006577456369996071,
          0.001474099582992494,
          0.00780059490352869,
          0.004781905096024275,
          0.00962844304740429,
          0.007886496372520924,
          0.00860657636076212,
          0.008896551094949245,
          0.009453859180212021,
          0.009192080236971378,
          0.014919446781277657,
          0.011321456171572208,
          0.0041160378605127335,
          0.01086785551160574,
          0.00663284445181489,
          -0.00014179573918227106,
          -0.006681975442916155,
          -0.013088363222777843,
          -0.01152771431952715,
          -0.010748607106506824,
          -0.01839330606162548,
          -0.007926713675260544,
          0.0010985855478793383,
          0.0060779135674238205,
          -0.0010483907535672188,
          0.007124446332454681,
          0.0018598033348098397,
          0.0028932231944054365,
          0.003917038906365633,
          0.008543836884200573,
          0.0099646532908082,
          0.004149440675973892,
          0.005512811243534088,
          0.005674375686794519,
          0.006018192041665316,
          0.009424814954400063,
          0.0028614639304578304,
          0.008609594777226448,
          0.004428602755069733,
          0.004089923109859228,
          0.0038041339721530676,
          -0.006081435829401016,
          0.002025580033659935,
          -0.006357371807098389,
          -0.005604640580713749,
          -0.006830222439020872,
          -0.004516396205872297,
          -0.005654425825923681,
          -0.0001112705358536914,
          -0.0016372163081541657,
          -0.002637433586642146,
          -0.0020939046517014503,
          0.0009417238179594278,
          0.0049818349070847034,
          0.003114990657195449,
          0.008143006823956966,
          0.0006732906331308186,
          0.0033189626410603523,
          0.0018217688193544745,
          0.004008909687399864,
          0.005657006520777941,
          0.009321452118456364,
          0.005860256962478161,
          0.008836706168949604,
          0.002804373623803258,
          0.009743920527398586,
          0.007996764034032822,
          0.00007253556395880878,
          0.002774199703708291,
          0.00811714120209217,
          0.0006438524578697979,
          0.001552304602228105,
          0.0037003064062446356,
          0.0059390864335000515,
          0.006337798200547695,
          0.0037349455524235964,
          0.002692856127396226,
          0.003941206727176905,
          0.0014683271292597055,
          0.0020683095790445805,
          0.004528807941824198,
          0.00956556387245655,
          0.0029064854606986046,
          0.002322226297110319,
          0.0022025874350219965,
          0.009404612705111504,
          0.007509274408221245
        ],
        [
          0.0014497245429083705,
          0.0016104242531582713,
          0.009228133596479893,
          0.009398858062922955,
          0.008711780421435833,
          0.009480022825300694,
          0.006513793021440506,
          0.0012752156471833587,
          0.005898881237953901,
          0.0034927225206047297,
          0.002876333659514785,
          0.0011051464825868607,
          0.007477111648768187,
          0.008161313831806183,
          0.002244796371087432,
          0.0027196400333195925,
          0.004679243545979261,
          0.004779226146638393,
          0.007771884091198444,
          0.00871945172548294,
          0.007540584541857243,
          0.0036819996312260628,
          0.003756723366677761,
          0.0009490753873251379,
          0.001382179674692452,
          0.008689485490322113,
          0.0024822696577757597,
          0.0057638841681182384,
          0.009503595530986786,
          0.00006143018981674686,
          0.005052189342677593,
          0.007041353266686201,
          0.0021928087808191776,
          0.001615959103219211,
          0.010038649663329124,
          0.009854829870164394,
          0.01167650893330574,
          0.0020696830470114946,
          0.007294879760593176,
          0.008506094105541706,
          0.009026930667459965,
          0.011442655697464943,
          0.011514714919030666,
          0.013037143275141716,
          0.011834535747766495,
          0.008827917277812958,
          0.0027590817771852016,
          0.005163402296602726,
          0.001632492640055716,
          0.003538197372108698,
          0.011444627307355404,
          0.01120027992874384,
          0.0025692014023661613,
          0.0015728885773569345,
          0.009759854525327682,
          0.00607015285640955,
          0.0008828538120724261,
          0.007633978500962257,
          0.009416483342647552,
          0.00783542636781931,
          0.0049992878921329975,
          0.0014184204628691077,
          0.0029708980582654476,
          0.0059853242710232735,
          0.01745380461215973,
          0.01939879171550274,
          0.020540980622172356,
          0.022371742874383926,
          0.019725555554032326,
          0.011327717453241348,
          0.016872931271791458,
          0.01529888529330492,
          0.01624888740479946,
          0.019324323162436485,
          0.009856649674475193,
          0.007685534656047821,
          0.014363372698426247,
          0.006362164858728647,
          0.010467678308486938,
          0.005927559453994036,
          0.007867901585996151,
          0.0016139246290549636,
          0.0027495597023516893,
          0.00938964169472456,
          0.002775356639176607,
          0.0076462882570922375,
          0.00940883532166481,
          0.0026016340125352144,
          0.0023268109653145075,
          0.00490364758297801,
          0.005365201737731695,
          0.018008261919021606,
          0.01923869363963604,
          0.03099546767771244,
          0.04596475511789322,
          0.055149152874946594,
          0.0523502342402935,
          0.055930245667696,
          0.03989056125283241,
          0.017705019563436508,
          0.02810112200677395,
          0.03226914629340172,
          0.027463484555482864,
          0.014340930618345737,
          0.005362005438655615,
          0.0024432858917862177,
          -0.0037331711500883102,
          0.005274488590657711,
          0.0031904957722872496,
          0.00978919118642807,
          0.002273059217259288,
          0.0022728978656232357,
          0.006699447054415941,
          0.0026003059465438128,
          0.004953333642333746,
          0.007191955111920834,
          0.0059554544277489185,
          0.005592173431068659,
          0.009230067953467369,
          0.022393397986888885,
          0.03137274459004402,
          0.049337394535541534,
          0.05672375485301018,
          0.05724949762225151,
          0.04566839337348938,
          0.013217315077781677,
          -0.004016399383544922,
          -0.012295402586460114,
          -0.010099236853420734,
          -0.019453613087534904,
          0.002798281144350767,
          0.0065597412176430225,
          -0.009493356570601463,
          -0.017359372228384018,
          -0.017661722376942635,
          -0.015359682962298393,
          0.0010806645732373,
          0.006327514536678791,
          0.004071758594363928,
          0.0075805820524692535,
          0.004224125761538744,
          0.00477969367057085,
          0.009589152410626411,
          0.00796467624604702,
          0.007856779731810093,
          -0.00354878231883049,
          -0.0062284041196107864,
          0.016532449051737785,
          0.024287045001983643,
          0.023059306666254997,
          0.04096775874495506,
          0.008984718471765518,
          -0.009713200852274895,
          -0.050156328827142715,
          -0.0637398287653923,
          -0.06062503531575203,
          -0.021486936137080193,
          -0.02378586120903492,
          -0.03656492382287979,
          -0.02909240871667862,
          -0.035374753177165985,
          -0.02750234305858612,
          -0.03371962904930115,
          -0.023625005036592484,
          -0.012065506540238857,
          0.003922680858522654,
          0.004584561567753553,
          0.001582948025316,
          0.002370098140090704,
          0.0015154480934143066,
          0.007676754146814346,
          0.002475162735208869,
          0.004557423293590546,
          0.0003678780922200531,
          -0.003062873613089323,
          -0.0005505409208126366,
          -0.003083788091316819,
          -0.013698172755539417,
          -0.023832999169826508,
          -0.03588075935840607,
          -0.0436459444463253,
          -0.06626911461353302,
          -0.07576153427362442,
          -0.059820789843797684,
          -0.046934470534324646,
          -0.05892530456185341,
          -0.0465572215616703,
          -0.05167525261640549,
          -0.05234715715050697,
          -0.03427032008767128,
          -0.03870079666376114,
          -0.03981870785355568,
          -0.013077061623334885,
          0.004875405225902796,
          0.007918807677924633,
          0.009089944884181023,
          0.00015334897034335881,
          0.004507796838879585,
          0.003567059524357319,
          0.006249269470572472,
          0.011695568449795246,
          0.006399632431566715,
          -0.009303784929215908,
          -0.006302203517407179,
          -0.004278751090168953,
          -0.014911791309714317,
          -0.022159434854984283,
          -0.02126392163336277,
          -0.04233819246292114,
          -0.048825789242982864,
          -0.04407964646816254,
          -0.04244638606905937,
          -0.048730723559856415,
          -0.055566322058439255,
          -0.059655603021383286,
          -0.06089174374938011,
          -0.043946318328380585,
          -0.03795883432030678,
          -0.03207898512482643,
          -0.03690900281071663,
          -0.01208773534744978,
          -0.0007072268635965884,
          0.0026125898584723473,
          0.004772201646119356,
          0.008525832556188107,
          0.00966317392885685,
          0.004992565605789423,
          0.01098617073148489,
          0.015700843185186386,
          0.0015865915920585394,
          -0.013810482807457447,
          -0.013506869785487652,
          -0.008096224628388882,
          -0.008080361410975456,
          0.02007349766790867,
          -0.004584328271448612,
          -0.02478080801665783,
          -0.02078676037490368,
          -0.003253321861848235,
          -0.00860014371573925,
          -0.013554942794144154,
          -0.0343393012881279,
          -0.06659461557865143,
          -0.056591495871543884,
          -0.01342465914785862,
          -0.010420932434499264,
          -0.012323588132858276,
          -0.02073953114449978,
          -0.010904056020081043,
          -0.008116226643323898,
          0.004637010395526886,
          0.005842713173478842,
          0.005310627166181803,
          0.00272455089725554,
          0.00712233129888773,
          0.010650762356817722,
          0.015999561175704002,
          0.005893968045711517,
          -0.02231316827237606,
          -0.005272503476589918,
          -0.013209506869316101,
          0.004737395793199539,
          -0.0004188840393908322,
          -0.009859138168394566,
          -0.01496890839189291,
          -0.0003966216172557324,
          0.03804595395922661,
          0.043647654354572296,
          0.015522641129791737,
          -0.017120683565735817,
          -0.03577929362654686,
          -0.03403964638710022,
          -0.015763692557811737,
          -0.008057587780058384,
          0.0075312890112400055,
          -0.013408559374511242,
          -0.011896658688783646,
          -0.0026274765841662884,
          0.004461604170501232,
          0.0021659911144524813,
          0.0037192758172750473,
          0.009576963260769844,
          0.006691076792776585,
          0.01048809289932251,
          0.0006899450090713799,
          -0.010586565360426903,
          -0.018135959282517433,
          -0.007837982848286629,
          -0.016168396919965744,
          -0.01260876003652811,
          -0.03558111563324928,
          -0.02992231585085392,
          -0.028288131579756737,
          -0.0252634696662426,
          0.011370861902832985,
          0.007473425008356571,
          0.025964153930544853,
          0.010199625976383686,
          -0.011869299225509167,
          -0.030543001368641853,
          0.0019724739249795675,
          0.0018858792027458549,
          0.009911850094795227,
          0.0008205039775930345,
          0.00022863094636704773,
          0.0034985167440027,
          0.00484855379909277,
          -0.00048712146235629916,
          0.0019198054214939475,
          0.00640797009691596,
          0.004342731088399887,
          0.0026203137822449207,
          -0.01142142340540886,
          -0.020046835765242577,
          -0.02768390253186226,
          -0.021090885624289513,
          -0.026534225791692734,
          -0.024676064029335976,
          -0.0491381473839283,
          -0.029692213982343674,
          -0.04030977189540863,
          -0.03262973576784134,
          -0.013422808609902859,
          -0.016718298196792603,
          0.010186710394918919,
          0.008708314970135689,
          -0.022330639883875847,
          -0.007244668900966644,
          0.007360810413956642,
          0.012556055560708046,
          0.01625940017402172,
          0.014820002019405365,
          -0.003887573489919305,
          -0.002545095980167389,
          -0.001335318316705525,
          0.0037693679332733154,
          0.0013321853475645185,
          0.006472456734627485,
          0.0015444316668435931,
          0.00015634801820851862,
          -0.023992452770471573,
          -0.03474373742938042,
          -0.03404661640524864,
          -0.023035012185573578,
          -0.02734548971056938,
          -0.03339659422636032,
          -0.018184848129749298,
          0.007704975549131632,
          0.008358410559594631,
          0.013145589269697666,
          0.011852504685521126,
          -0.01874052733182907,
          0.004269244149327278,
          -0.02259010635316372,
          -0.016988664865493774,
          -0.012287306599318981,
          -0.008697465062141418,
          0.014240394346415997,
          0.017560668289661407,
          0.023809708654880524,
          0.01773432083427906,
          0.010579721070826054,
          0.008438054472208023,
          0.0029825991950929165,
          0.0036439583636820316,
          0.006654796656221151,
          0.0032561987172812223,
          0.006412293296307325,
          -0.023165713995695114,
          -0.036686062812805176,
          -0.027879832312464714,
          -0.012510023079812527,
          -0.026969851925969124,
          -0.003247403772547841,
          0.0437723770737648,
          0.05513640120625496,
          0.07336150854825974,
          0.07551465183496475,
          0.0398879200220108,
          0.009477337822318077,
          -0.0017315438017249107,
          -0.02950570359826088,
          -0.012819888070225716,
          -0.029042121022939682,
          -0.01567644067108631,
          0.020512066781520844,
          0.021869948133826256,
          0.041748277842998505,
          0.045653652399778366,
          0.023566562682390213,
          0.011709185317158699,
          0.007094153668731451,
          0.0014663777546957135,
          0.0002807974233292043,
          0.005400574766099453,
          0.0006445887265726924,
          -0.021231774240732193,
          -0.019515620544552803,
          -0.004113043658435345,
          -0.00826926901936531,
          -0.010434531606733799,
          0.03191569820046425,
          0.06514064967632294,
          0.060836344957351685,
          0.06505817174911499,
          0.06748916208744049,
          0.039807673543691635,
          0.023945890367031097,
          -0.006963124964386225,
          -0.030716964974999428,
          -0.00315475813113153,
          -0.0094184884801507,
          0.010683223605155945,
          0.0468948632478714,
          0.04349234327673912,
          0.050866689532995224,
          0.04968377947807312,
          0.024191316217184067,
          0.01621587760746479,
          0.000868410337716341,
          0.00137173174880445,
          0.008395460434257984,
          0.0025552399456501007,
          0.003709951648488641,
          -0.0025454964488744736,
          0.014755124226212502,
          0.01068235281854868,
          -0.003082842566072941,
          -0.023262489587068558,
          0.01346532441675663,
          0.0314205065369606,
          0.023297563195228577,
          0.01750052534043789,
          0.03240026533603668,
          0.015728551894426346,
          0.007737018167972565,
          -0.00011617716518230736,
          -0.009690092876553535,
          0.015308908186852932,
          0.03005703166127205,
          0.047359857708215714,
          0.06103850156068802,
          0.0463264100253582,
          0.050301238894462585,
          0.061169303953647614,
          0.030127843841910362,
          0.017197467386722565,
          0.010021815076470375,
          0.004944584798067808,
          0.005016128066927195,
          0.0036275896709412336,
          0.014977832324802876,
          0.023094551637768745,
          0.03458261117339134,
          0.028238492086529732,
          -0.001654391991905868,
          -0.03509833663702011,
          0.004522285424172878,
          0.010571416467428207,
          0.009275245480239391,
          0.002475351793691516,
          -0.0037195542827248573,
          0.013784702867269516,
          0.004397526849061251,
          0.00893520936369896,
          0.010416651144623756,
          0.03091093711555004,
          0.04303859546780586,
          0.04367144778370857,
          0.062263090163469315,
          0.05772753432393074,
          0.05643860995769501,
          0.046028632670640945,
          0.036349281668663025,
          0.01655116304755211,
          0.008516914211213589,
          0.0002464505087118596,
          0.003140677697956562,
          0.011126830242574215,
          0.01544336136430502,
          0.03666579723358154,
          0.04034010320901871,
          0.04037133604288101,
          0.014827415347099304,
          -0.025784192606806755,
          -0.022320175543427467,
          -0.013006836175918579,
          0.0031428905203938484,
          0.000931877875700593,
          -0.007677294779568911,
          -0.015211978927254677,
          -0.007491852156817913,
          0.019732831045985222,
          0.0251762792468071,
          0.013086376711726189,
          0.022862914949655533,
          0.01450304500758648,
          0.04703223705291748,
          0.05871589109301567,
          0.04102851822972298,
          0.03161517530679703,
          0.03009892627596855,
          0.01309536024928093,
          0.005682020448148251,
          0.0014936673687770963,
          0.0045618219301104546,
          0.00925432424992323,
          0.015443412587046623,
          0.04217785224318504,
          0.04320994392037392,
          0.043766215443611145,
          0.038382381200790405,
          0.008663898333907127,
          -0.023738186806440353,
          0.009721556678414345,
          0.021674852818250656,
          0.03405824676156044,
          0.013930064626038074,
          0.008143441751599312,
          0.019641226157546043,
          0.06145915389060974,
          0.03905859962105751,
          0.036425091326236725,
          0.006555245723575354,
          -0.008265407755970955,
          0.025823945179581642,
          0.04403473436832428,
          0.04145064204931259,
          0.038257986307144165,
          0.024788254871964455,
          -0.00031712892814539373,
          0.007596615236252546,
          0.002991577610373497,
          0.002657519420608878,
          0.009394575841724873,
          0.012957691214978695,
          0.035828880965709686,
          0.03091537207365036,
          0.031087132170796394,
          0.03854348137974739,
          0.03170830011367798,
          0.024172864854335785,
          0.05714830011129379,
          0.06890527904033661,
          0.07833568751811981,
          0.05634600669145584,
          0.04775426164269447,
          0.04547189548611641,
          0.03664138540625572,
          0.04195258393883705,
          0.03208297863602638,
          0.007235987577587366,
          0.01153902243822813,
          0.027914883568882942,
          0.04775264486670494,
          0.04595106467604637,
          0.026142466813325882,
          0.015900375321507454,
          0.006383953150361776,
          0.0028318872209638357,
          0.00003164275403833017,
          0.000665925326757133,
          0.010976899415254593,
          0.018587324768304825,
          0.04342464357614517,
          0.03476216271519661,
          0.008862377144396305,
          0.041336797177791595,
          0.03306330367922783,
          0.038507286459207535,
          0.06904210895299911,
          0.08441757410764694,
          0.054809827357530594,
          0.053840272128582,
          0.052222803235054016,
          0.03445705771446228,
          0.022304683923721313,
          0.009076864458620548,
          0.003163357265293598,
          -0.014246208593249321,
          -0.002852704841643572,
          0.018846923485398293,
          0.022584322839975357,
          0.025064758956432343,
          0.017597081139683723,
          0.015092665329575539,
          0.003122815629467368,
          0.006949006579816341,
          0.00007037028990453109,
          0.008084878325462341,
          0.010994312353432178,
          0.01636691577732563,
          0.030989112332463264,
          0.02408270724117756,
          0.006280357949435711,
          0.012107851915061474,
          -0.005431045778095722,
          0.028003618121147156,
          0.052862733602523804,
          0.03375304862856865,
          0.019009295850992203,
          0.016047175973653793,
          0.016380276530981064,
          -0.009861037135124207,
          -0.019869985058903694,
          -0.03192274272441864,
          -0.023884281516075134,
          -0.011940513737499714,
          -0.024604711681604385,
          -0.009218852035701275,
          0.0007965840632095933,
          0.010018540546298027,
          0.011143511161208153,
          0.006947286427021027,
          0.009951524436473846,
          0.0002394597977399826,
          0.008123775944113731,
          0.0027715880423784256,
          0.008495815098285675,
          0.014751356095075607,
          0.01817363128066063,
          0.005456998478621244,
          0.00024525646585971117,
          -0.005321372766047716,
          -0.0227851253002882,
          -0.0065034362487494946,
          -0.004768282640725374,
          -0.026701103895902634,
          -0.027145417407155037,
          -0.034787531942129135,
          -0.05320650711655617,
          -0.0653703510761261,
          -0.08998355269432068,
          -0.0762418657541275,
          -0.058169569820165634,
          -0.03785577043890953,
          -0.0368182398378849,
          -0.03049604408442974,
          -0.015837401151657104,
          -0.0013293563388288021,
          0.007114368490874767,
          0.00697100767865777,
          0.0030244761146605015,
          0.004530311096459627,
          0.003429251257330179,
          0.004440146032720804,
          0.005142378155142069,
          0.0041931928135454655,
          0.008245689794421196,
          0.002841661451384425,
          -0.003316072514280677,
          -0.018603337928652763,
          -0.03426508605480194,
          -0.02714352495968342,
          -0.03927585855126381,
          -0.052416667342185974,
          -0.056291401386260986,
          -0.07264944165945053,
          -0.0780709832906723,
          -0.07612837105989456,
          -0.08428747206926346,
          -0.09105990082025528,
          -0.06337083131074905,
          -0.056488391011953354,
          -0.044068921357393265,
          -0.022352619096636772,
          -0.0026870770379900932,
          -0.00435421708971262,
          0.010799841955304146,
          0.0031671461183577776,
          0.00048464216524735093,
          0.006463958881795406,
          0.002644601045176387,
          0.0008133868686854839,
          0.007922397926449776,
          0.004031726159155369,
          0.000568835879676044,
          -0.003068995662033558,
          -0.0022871410474181175,
          -0.011231983080506325,
          -0.018953336402773857,
          -0.030239710584282875,
          -0.03976842015981674,
          -0.04359819367527962,
          -0.03490078076720238,
          -0.04120331630110741,
          -0.03631100058555603,
          -0.025702932849526405,
          -0.03847940266132355,
          -0.03263462334871292,
          -0.02551896497607231,
          -0.032625697553157806,
          -0.025166306644678116,
          -0.01331693958491087,
          -0.007081642281264067,
          -0.0063592721708118916,
          0.004007421433925629,
          0.005798838101327419,
          0.005067854188382626,
          0.009750954806804657,
          0.0005785947432741523,
          0.008538943715393543,
          0.0010074315359815955,
          0.0016410364769399166,
          0.005003101658076048,
          0.0008576027466915548,
          -0.008293920196592808,
          -0.006375512573868036,
          -0.009093214757740498,
          -0.011466765776276588,
          -0.01012125052511692,
          -0.008360441774129868,
          -0.006482260301709175,
          -0.008878691121935844,
          -0.010152666829526424,
          -0.007257131393998861,
          -0.004663502797484398,
          -0.010617083869874477,
          -0.0025251011829823256,
          0.003303609089925885,
          -0.0012487611966207623,
          -0.004103386774659157,
          0.0034191044978797436,
          0.002982400357723236,
          0.003864900441840291,
          0.0042059398256242275,
          0.008506711572408676,
          0.00479847751557827,
          0.00929225143045187,
          0.004293804056942463,
          0.00436990475282073,
          0.0072637395933270454,
          0.0022416303399950266,
          0.003966625314205885,
          -0.0005341331125237048,
          0.0016055181622505188,
          -0.0026609040796756744,
          -0.002691375557333231,
          -0.005809816997498274,
          -0.003915144596248865,
          0.004699869081377983,
          -0.0007193205528892577,
          0.008111503906548023,
          0.0009034450049512088,
          0.0021282448433339596,
          0.007446783594787121,
          0.003247656160965562,
          0.005617266520857811,
          0.008013416081666946,
          0.00571392523124814,
          0.009907050058245659,
          0.006717943120747805,
          0.006621066480875015,
          0.006933175027370453,
          0.008089141920208931,
          0.0019464889774098992,
          0.00458608940243721,
          0.0040848529897630215,
          0.007053020875900984,
          0.0006342134438455105,
          0.0018140524625778198,
          0.0025645368732511997,
          0.004227129742503166,
          0.0049331821501255035,
          0.0044393716380000114,
          0.0047035906463861465,
          0.0026330945547670126,
          0.007886653766036034,
          0.0011941910488530993,
          0.0060075013898313046,
          0.0037135095335543156,
          0.005624694284051657,
          0.0032791877165436745,
          0.00924613419920206,
          0.001597326248884201,
          0.002501385286450386,
          0.008382604457437992,
          -0.00032397478935308754,
          0.007186636328697205,
          0.0035466644912958145,
          0.003401403082534671,
          0.0066023035906255245,
          0.007336495444178581,
          0.005144414491951466
        ],
        [
          0.0007363619515672326,
          0.0067701926454901695,
          0.0006479223957285285,
          0.0037648319266736507,
          0.006464475300163031,
          0.005126806907355785,
          0.008043259382247925,
          0.0004726258048322052,
          0.00920784566551447,
          0.0002891968179028481,
          0.0055329445749521255,
          0.002445625839754939,
          0.0059531694278120995,
          0.0022297450341284275,
          0.002786136930808425,
          0.0003885469341184944,
          0.0015230091521516442,
          0.006003072485327721,
          0.001370398560538888,
          0.006357040721923113,
          0.0016784223262220621,
          0.0039022075943648815,
          0.002506815129891038,
          0.008852792903780937,
          0.002533487044274807,
          0.004009483847767115,
          0.007754101417958736,
          0.006569140125066042,
          0.0075819953344762325,
          0.0034721996635198593,
          0.002118252217769623,
          0.006992140784859657,
          0.003074010368436575,
          0.007755421567708254,
          0.007389916572719812,
          0.008823767304420471,
          0.004440785851329565,
          0.0035953798796981573,
          0.004879761021584272,
          0.0014191592345014215,
          0.007436887361109257,
          0.005181218963116407,
          0.0075827306136488914,
          0.00799098052084446,
          0.008648327551782131,
          0.005314764566719532,
          0.005767452530562878,
          0.0022936793975532055,
          0.000051693146815523505,
          0.0028599887154996395,
          0.007747548166662455,
          0.009051486849784851,
          0.002564795548096299,
          0.00015503722534049302,
          0.004560814239084721,
          0.005398754961788654,
          0.00849149376153946,
          0.0017176956171169877,
          0.003401742782443762,
          0.00038863951340317726,
          0.0014358088374137878,
          0.008095958270132542,
          0.0069905552081763744,
          0.007846994325518608,
          0.0074380566366016865,
          0.001621963339857757,
          0.0023730674292892218,
          0.000352540984749794,
          -0.002839472610503435,
          0.00004572297984850593,
          0.002899381099268794,
          -0.0007783485925756395,
          -0.007986398413777351,
          -0.0066004786640405655,
          -0.008265210315585136,
          0.0009504633489996195,
          0.0023929497692734003,
          0.0036217716988176107,
          0.009262586012482643,
          0.004138472490012646,
          0.0007962200324982405,
          0.004964309744536877,
          0.009207009337842464,
          0.0018079146975651383,
          0.0005360255017876625,
          0.007326947059482336,
          0.006929450202733278,
          0.004398264456540346,
          0.0015224606031551957,
          0.0026306058280169964,
          0.008597887121140957,
          0.0059696682728827,
          0.014926466159522533,
          0.012336951680481434,
          0.01708952896296978,
          0.019963698461651802,
          0.015686767175793648,
          0.01583128049969673,
          0.010248479433357716,
          -0.005368052050471306,
          -0.010028045624494553,
          -0.016119839623570442,
          -0.020614992827177048,
          -0.009879641234874725,
          -0.0032119927927851677,
          -0.0033099313732236624,
          0.001483336789533496,
          0.00006098173980717547,
          0.0009046890190802515,
          0.001657569664530456,
          0.005092639476060867,
          0.0027319788932800293,
          0.006080006714910269,
          0.004191198851913214,
          0.0024498114362359047,
          0.0036177360452711582,
          0.010661467909812927,
          0.008844725787639618,
          0.015630315989255905,
          0.023208504542708397,
          0.036284565925598145,
          0.044051382690668106,
          0.05507894605398178,
          0.062124937772750854,
          0.05815790593624115,
          0.03981431573629379,
          0.012367213144898415,
          -0.0041586062870919704,
          -0.03977334126830101,
          -0.047029439359903336,
          -0.04606716334819794,
          -0.039965979754924774,
          -0.022467009723186493,
          -0.014616587199270725,
          -0.014391092583537102,
          -0.008015073835849762,
          0.005485049914568663,
          0.005662892013788223,
          0.007392012979835272,
          0.006799123715609312,
          0.006368263624608517,
          0.008970112539827824,
          0.0047691585496068,
          0.011967969126999378,
          0.013774103485047817,
          0.02420792169868946,
          0.0439404621720314,
          0.053774673491716385,
          0.05756597965955734,
          0.054613225162029266,
          0.0702843889594078,
          0.0457557775080204,
          0.021000945940613747,
          0.008329943753778934,
          0.0070696328766644,
          -0.02589596062898636,
          -0.03137176111340523,
          -0.05486255884170532,
          -0.04021238163113594,
          -0.040497273206710815,
          -0.04354991763830185,
          -0.03283829241991043,
          -0.028443902730941772,
          -0.01761334016919136,
          -0.0013721879804506898,
          0.0014757292810827494,
          0.00044309135410003364,
          0.0019878381863236427,
          0.004976671189069748,
          0.0009418773697689176,
          0.003357519628480077,
          0.0061064292676746845,
          0.0176372192800045,
          0.03789498284459114,
          0.0671641007065773,
          0.07560981065034866,
          0.08004815876483917,
          0.07722211629152298,
          0.09559117257595062,
          0.06412588059902191,
          0.05624063313007355,
          0.0317431204020977,
          0.007993959821760654,
          -0.008087992668151855,
          -0.0029725392814725637,
          -0.004544920288026333,
          -0.014811892993748188,
          -0.009113109670579433,
          -0.019586920738220215,
          -0.01065337099134922,
          -0.02000073902308941,
          -0.03291710838675499,
          -0.023098405450582504,
          -0.004358453676104546,
          0.007754838094115257,
          0.0020586177706718445,
          0.008598970249295235,
          0.008714225143194199,
          0.011797474697232246,
          0.014286443591117859,
          0.024501990526914597,
          0.046339504420757294,
          0.07243981212377548,
          0.08900923281908035,
          0.06698385626077652,
          0.09827014803886414,
          0.08530973643064499,
          0.07090067863464355,
          0.06576963514089584,
          0.05542857199907303,
          0.026860129088163376,
          0.014970350079238415,
          0.026658859103918076,
          0.04552281275391579,
          0.018069980666041374,
          0.02121075615286827,
          -0.005511256400495768,
          -0.021263444796204567,
          -0.019533373415470123,
          -0.03927416354417801,
          -0.03149079158902168,
          -0.015769753605127335,
          -0.0020000936929136515,
          0.007192046381533146,
          0.00032494039623998106,
          0.006018958054482937,
          0.010964784771203995,
          0.014721330255270004,
          0.033952176570892334,
          0.03709578886628151,
          0.03576349839568138,
          0.06262098252773285,
          0.06414507329463959,
          0.058645300567150116,
          0.06738373637199402,
          0.05693154036998749,
          0.07781220227479935,
          0.06914183497428894,
          0.09069585800170898,
          0.06512533128261566,
          0.05536263436079025,
          0.052823491394519806,
          0.02777094952762127,
          0.01829899102449417,
          -0.008184811100363731,
          -0.026597561314702034,
          -0.0022320442367345095,
          -0.03939146175980568,
          -0.039982426911592484,
          -0.013582002371549606,
          0.0021802224218845367,
          0.005758234299719334,
          0.0005371746374294162,
          0.0007783049368299544,
          0.008706362918019295,
          0.02213607169687748,
          0.022032536566257477,
          0.015752719715237617,
          -0.002707147505134344,
          0.005289164371788502,
          0.00165797199588269,
          -0.0009525300120003521,
          -0.01747501641511917,
          -0.031928930431604385,
          0.012863999232649803,
          0.03156000003218651,
          0.07184882462024689,
          0.043649427592754364,
          0.06346411257982254,
          0.06709237396717072,
          0.02334478311240673,
          0.010507188737392426,
          -0.010721416212618351,
          -0.007571455091238022,
          -0.007213524542748928,
          -0.028214270249009132,
          -0.023195691406726837,
          -0.008125897496938705,
          -0.0007926042890176177,
          0.007421385031193495,
          0.0009341206750832498,
          0.0059139542281627655,
          0.006826338823884726,
          0.019042635336518288,
          0.0049858116544783115,
          -0.016770359128713608,
          -0.03987521305680275,
          -0.07365789264440536,
          -0.06951640546321869,
          -0.07452354580163956,
          -0.09807882457971573,
          -0.09800227731466293,
          -0.08255871385335922,
          -0.028611663728952408,
          -0.02101084776222706,
          -0.030491720885038376,
          0.026418054476380348,
          0.03622712939977646,
          0.018637508153915405,
          -0.004071164410561323,
          0.006193797569721937,
          0.01329006627202034,
          -0.005962441209703684,
          -0.014753695577383041,
          -0.005910279229283333,
          -0.004261133261024952,
          -0.00004659065598389134,
          0.003432507161051035,
          0.007452644873410463,
          0.005019067320972681,
          0.008115927688777447,
          0.015468022786080837,
          -0.020035162568092346,
          -0.05292050167918205,
          -0.07311777025461197,
          -0.10620014369487762,
          -0.10654936730861664,
          -0.08584393560886383,
          -0.09711281955242157,
          -0.07241576164960861,
          -0.09206314384937286,
          -0.06604158878326416,
          -0.0769149512052536,
          -0.065536268055439,
          -0.01276157796382904,
          0.013331014662981033,
          0.016791870817542076,
          -0.014807266183197498,
          -0.00919934269040823,
          0.0006258265930227935,
          -0.0098107336089015,
          -0.02124912291765213,
          -0.007173292338848114,
          0.002155895112082362,
          0.005893651861697435,
          0.009524733759462833,
          0.0006439771386794746,
          0.005626696161925793,
          0.0064033265225589275,
          0.004564633592963219,
          -0.030208153650164604,
          -0.07484552264213562,
          -0.0920586958527565,
          -0.1112721636891365,
          -0.11432118713855743,
          -0.09229759871959686,
          -0.06092459708452225,
          -0.05523144453763962,
          -0.07000797986984253,
          -0.0872100368142128,
          -0.08061525225639343,
          -0.05817647650837898,
          -0.01557641476392746,
          -0.026750881224870682,
          -0.02756979502737522,
          -0.04559991881251335,
          -0.03471992909908295,
          -0.01667947694659233,
          -0.00984201394021511,
          -0.021117134019732475,
          -0.0005147746996954083,
          0.005222776904702187,
          0.008393260650336742,
          0.00838228315114975,
          0.00130195333622396,
          0.00396989518776536,
          0.006755110342055559,
          0.0027419435791671276,
          -0.038454458117485046,
          -0.06834007054567337,
          -0.09340395033359528,
          -0.10624337941408157,
          -0.09094252437353134,
          -0.039611052721738815,
          -0.00648982310667634,
          -0.0328085832297802,
          -0.05071172118186951,
          -0.04298257455229759,
          -0.04462665691971779,
          -0.05339948087930679,
          -0.0015704764518886805,
          -0.00564662367105484,
          -0.027037180960178375,
          -0.060928281396627426,
          -0.03383293375372887,
          -0.01110672578215599,
          -0.0173218734562397,
          -0.021157454699277878,
          0.009221880696713924,
          0.015585602261126041,
          0.008449094370007515,
          0.0007933536544442177,
          0.007441675290465355,
          0.0001900190836749971,
          0.006920584011822939,
          -0.004087615758180618,
          -0.028526049107313156,
          -0.0483180396258831,
          -0.08406952023506165,
          -0.07403457164764404,
          -0.050221480429172516,
          -0.0009317681542597711,
          0.0006596886087208986,
          -0.0064952257089316845,
          -0.021763907745480537,
          -0.020551951602101326,
          -0.03137998655438423,
          -0.014695481397211552,
          -0.001590728759765625,
          -0.008660695515573025,
          0.010972621850669384,
          0.0026427926495671272,
          -0.002775064902380109,
          0.012610246427357197,
          -0.010613654740154743,
          0.0030450650956481695,
          0.01890520751476288,
          0.01154571957886219,
          0.006159862503409386,
          0.0047027175314724445,
          0.0014635658590123057,
          0.0025264236610382795,
          0.008539465256035328,
          -0.006442866753786802,
          -0.022065455093979836,
          -0.034216076135635376,
          -0.04488525167107582,
          -0.027910325676202774,
          -0.026286089792847633,
          0.0011896122014150023,
          0.013687986880540848,
          -0.011811013333499432,
          -0.0036065825261175632,
          0.002939253579825163,
          -0.016084687784314156,
          0.0012683619279414415,
          -0.03236086666584015,
          -0.00708011444658041,
          0.02094230055809021,
          0.03138664737343788,
          0.03161243721842766,
          0.05089351907372475,
          0.01503988727927208,
          0.01511696632951498,
          0.023643651977181435,
          0.015118993818759918,
          0.0056192148476839066,
          0.009151591919362545,
          0.008114633150398731,
          0.00041855539893731475,
          0.009631327353417873,
          0.002465237630531192,
          -0.01590624451637268,
          -0.016160491853952408,
          -0.02411169558763504,
          -0.004111625719815493,
          0.015025210566818714,
          0.027491018176078796,
          0.015726998448371887,
          -0.024471214041113853,
          0.0070005906745791435,
          -0.017314745113253593,
          -0.03862635791301727,
          -0.04336216673254967,
          -0.04343876987695694,
          -0.02093290165066719,
          0.017568083480000496,
          0.04379206895828247,
          0.046816304326057434,
          0.05802295729517937,
          0.028511378914117813,
          0.010779227130115032,
          0.014375220984220505,
          0.016199829056859016,
          0.00263806851580739,
          0.010456638410687447,
          0.0032905919943004847,
          0.0007390808314085007,
          0.005826154258102179,
          0.007089211605489254,
          0.006447537336498499,
          0.0030743691604584455,
          -0.03394079580903053,
          -0.04206399619579315,
          -0.014063384383916855,
          -0.0019090133719146252,
          0.011438731104135513,
          0.010197573341429234,
          0.013454594649374485,
          -0.013737264089286327,
          -0.05487110838294029,
          -0.04754733294248581,
          -0.016063686460256577,
          0.006112582050263882,
          -0.000556566403247416,
          0.004029483068734407,
          0.001427298760972917,
          0.0202171690762043,
          0.012262034229934216,
          0.003817638847976923,
          0.005794096272438765,
          0.011092418804764748,
          0.00981911364942789,
          0.008711512200534344,
          0.0011955706868320704,
          0.003004275029525161,
          0.003230327507480979,
          0.011796637438237667,
          0.013757476583123207,
          0.002534183906391263,
          -0.030158163979649544,
          -0.05606161803007126,
          -0.043405525386333466,
          -0.02742535062134266,
          0.012047196738421917,
          0.019529342651367188,
          0.010244928300380707,
          -0.006317002233117819,
          -0.05637413263320923,
          -0.021074730902910233,
          -0.010114025324583054,
          0.016090089455246925,
          -0.0004581439425237477,
          -0.01325540617108345,
          -0.01911061629652977,
          0.00590807618573308,
          0.010967809706926346,
          -0.002118480857461691,
          -0.0010724908206611872,
          0.014364568516612053,
          0.007874108850955963,
          0.006166733801364899,
          0.006017433013767004,
          0.0013452996499836445,
          0.004086841829121113,
          0.0147658446803689,
          0.022395916283130646,
          0.00466508511453867,
          -0.040979404002428055,
          -0.04534599184989929,
          -0.026452459394931793,
          -0.01883741468191147,
          0.013341142795979977,
          -0.0025269766338169575,
          0.019268380478024483,
          0.0018548453226685524,
          -0.009629121981561184,
          -0.0006835748790763319,
          -0.002048466820269823,
          -0.004670875612646341,
          -0.03652265667915344,
          -0.05135255679488182,
          -0.02013539709150791,
          0.0025262930430471897,
          -0.004664085805416107,
          0.00586670683696866,
          0.010351565666496754,
          0.00825536996126175,
          0.005368590354919434,
          0.009012915194034576,
          0.00291637284681201,
          0.0012367975432425737,
          0.010423045605421066,
          0.017884377390146255,
          0.01956675760447979,
          0.008079570718109608,
          -0.035775408148765564,
          -0.050638068467378616,
          -0.02775176428258419,
          0.00033413496566936374,
          0.011832091957330704,
          0.0017123827710747719,
          0.017299901694059372,
          0.028282515704631805,
          0.049355413764715195,
          0.023976001888513565,
          -0.01018321979790926,
          -0.043406639248132706,
          -0.05503081530332565,
          -0.041231006383895874,
          -0.022414708510041237,
          -0.013910941779613495,
          -0.008793771266937256,
          -0.010744037106633186,
          0.0024902564473450184,
          0.007124218624085188,
          0.001576259732246399,
          0.005266669671982527,
          0.004284674301743507,
          0.005110898520797491,
          0.009634922258555889,
          0.00606505898758769,
          0.023651670664548874,
          0.010011060163378716,
          -0.016739437356591225,
          -0.03211056813597679,
          -0.026826046407222748,
          -0.021671440452337265,
          -0.005226239562034607,
          0.0006313741905614734,
          0.019689317792654037,
          0.031343210488557816,
          0.030611857771873474,
          0.026435937732458115,
          -0.008022778667509556,
          -0.03839291259646416,
          -0.04012596234679222,
          -0.027993137016892433,
          -0.017421456053853035,
          -0.020484985783696175,
          -0.007943554781377316,
          -0.0004686096799559891,
          -0.0009981092298403382,
          0.009353379718959332,
          0.003585455007851124,
          0.008379755541682243,
          0.0026313283015042543,
          0.009728994220495224,
          0.003385879099369049,
          0.0045702182687819,
          0.009315543808043003,
          0.010468094609677792,
          0.021503400057554245,
          0.01497171726077795,
          -0.009095278568565845,
          -0.02041352540254593,
          -0.0086972089484334,
          0.0034917232114821672,
          0.021307840943336487,
          0.025427356362342834,
          0.018529431894421577,
          0.04259137064218521,
          0.004157621413469315,
          -0.01868852786719799,
          -0.017972053959965706,
          0.00048416576464660466,
          -0.007090166676789522,
          -0.015842998400330544,
          -0.007433958351612091,
          0.0019660936668515205,
          0.002872664015740156,
          0.007873785682022572,
          0.0007652000640518963,
          0.007850524969398975,
          0.007301546633243561,
          0.003190939547494054,
          0.0033671255223453045,
          0.004032867960631847,
          0.0190078467130661,
          0.025946998968720436,
          0.04474935680627823,
          0.05164388194680214,
          0.017104849219322205,
          0.012192377820611,
          0.0059417360462248325,
          0.024068376049399376,
          0.02428618259727955,
          0.016085248440504074,
          0.009113738313317299,
          0.00948497373610735,
          -0.005817106459289789,
          -0.025886695832014084,
          -0.01272687129676342,
          -0.00842386856675148,
          -0.01789718307554722,
          -0.021579500287771225,
          -0.008866999298334122,
          -0.006655619014054537,
          0.0028117999900132418,
          0.003074194537475705,
          0.00046509396634064615,
          0.004719975404441357,
          0.0020896736532449722,
          0.00004550254379864782,
          0.005477976053953171,
          0.009454915300011635,
          0.022419745102524757,
          0.03850141912698746,
          0.04950275644659996,
          0.06010739877820015,
          0.04240318387746811,
          0.020677588880062103,
          0.0019324840977787971,
          0.03627026826143265,
          0.036321841180324554,
          0.05125253647565842,
          0.05146956443786621,
          0.027419017627835274,
          0.003748549846932292,
          -0.004294293466955423,
          -0.030138252303004265,
          -0.04327355697751045,
          -0.04165681451559067,
          -0.029674051329493523,
          -0.011561065912246704,
          -0.007918080314993858,
          0.009134804829955101,
          0.001966788899153471,
          0.009173905476927757,
          0.0026051360182464123,
          0.004235406871885061,
          0.0014198911376297474,
          0.005250129383057356,
          0.009362056851387024,
          0.008802001364529133,
          0.012347999028861523,
          0.02326078899204731,
          0.027971724048256874,
          0.03184594213962555,
          0.04139932617545128,
          0.05053563416004181,
          0.05724598467350006,
          0.04823160171508789,
          0.04855934903025627,
          0.04153204336762428,
          0.029772324487566948,
          0.012387128546833992,
          -0.003073198953643441,
          -0.003938713576644659,
          -0.018801243975758553,
          -0.02753937989473343,
          -0.015840822830796242,
          -0.005558283533900976,
          0.00385491456836462,
          0.008952438831329346,
          0.001209029695019126,
          0.0031374890822917223,
          0.007126970216631889,
          0.004190250299870968,
          0.007498661521822214,
          0.005200669169425964,
          0.00417413329705596,
          0.00434528011828661,
          0.0008655550773255527,
          0.006392685230821371,
          0.011814829893410206,
          0.01251074206084013,
          0.01605205424129963,
          0.016706153750419617,
          0.025302236899733543,
          0.011783462017774582,
          0.01798933558166027,
          0.018496831879019737,
          0.01978127285838127,
          0.01943976618349552,
          0.015091925859451294,
          0.010020449757575989,
          0.0015898036072030663,
